digraph Tree {
node [shape=box, style="filled", color="black"] ;
0 [label="call <= 0.087\ngini = 0.232\nsamples = 5572\nvalue = [4825, 747]\nclass = ham", fillcolor="#e99558"] ;
1 [label="txt <= 0.053\ngini = 0.153\nsamples = 5035\nvalue = [4616, 419]\nclass = ham", fillcolor="#e78c4b"] ;
0 -> 1 [labeldistance=2.5, labelangle=45, headlabel="True"] ;
2 [label="www <= 0.066\ngini = 0.107\nsamples = 4881\nvalue = [4604, 277]\nclass = ham", fillcolor="#e78945"] ;
1 -> 2 ;
3 [label="free <= 0.077\ngini = 0.089\nsamples = 4830\nvalue = [4604, 226]\nclass = ham", fillcolor="#e68743"] ;
2 -> 3 ;
4 [label="150p <= 0.074\ngini = 0.07\nsamples = 4735\nvalue = [4563, 172]\nclass = ham", fillcolor="#e68640"] ;
3 -> 4 ;
5 [label="claim <= 0.063\ngini = 0.063\nsamples = 4716\nvalue = [4563, 153]\nclass = ham", fillcolor="#e68540"] ;
4 -> 5 ;
6 [label="uk <= 0.065\ngini = 0.055\nsamples = 4697\nvalue = [4563, 134]\nclass = ham", fillcolor="#e6853f"] ;
5 -> 6 ;
7 [label="win <= 0.072\ngini = 0.05\nsamples = 4682\nvalue = [4562, 120]\nclass = ham", fillcolor="#e6843e"] ;
6 -> 7 ;
8 [label="tones <= 0.104\ngini = 0.045\nsamples = 4662\nvalue = [4555, 107]\nclass = ham", fillcolor="#e6843e"] ;
7 -> 8 ;
9 [label="unsubscribe <= 0.103\ngini = 0.042\nsamples = 4654\nvalue = [4555, 99]\nclass = ham", fillcolor="#e6843d"] ;
8 -> 9 ;
10 [label="http <= 0.082\ngini = 0.039\nsamples = 4648\nvalue = [4555, 93]\nclass = ham", fillcolor="#e6843d"] ;
9 -> 10 ;
11 [label="freemsg <= 0.097\ngini = 0.037\nsamples = 4643\nvalue = [4555, 88]\nclass = ham", fillcolor="#e6833d"] ;
10 -> 11 ;
12 [label="service <= 0.077\ngini = 0.035\nsamples = 4638\nvalue = [4555, 83]\nclass = ham", fillcolor="#e5833d"] ;
11 -> 12 ;
13 [label="ac <= 0.095\ngini = 0.032\nsamples = 4627\nvalue = [4551, 76]\nclass = ham", fillcolor="#e5833c"] ;
12 -> 13 ;
14 [label="club <= 0.201\ngini = 0.031\nsamples = 4623\nvalue = [4551, 72]\nclass = ham", fillcolor="#e5833c"] ;
13 -> 14 ;
15 [label="10p <= 0.101\ngini = 0.029\nsamples = 4619\nvalue = [4551, 68]\nclass = ham", fillcolor="#e5833c"] ;
14 -> 15 ;
16 [label="services <= 0.213\ngini = 0.027\nsamples = 4615\nvalue = [4551, 64]\nclass = ham", fillcolor="#e5833c"] ;
15 -> 16 ;
17 [label="video <= 0.176\ngini = 0.026\nsamples = 4612\nvalue = [4551, 61]\nclass = ham", fillcolor="#e5833c"] ;
16 -> 17 ;
18 [label="minmobsmorelkpobox177hp51fl <= 0.117\ngini = 0.025\nsamples = 4609\nvalue = [4551, 58]\nclass = ham", fillcolor="#e5833c"] ;
17 -> 18 ;
19 [label="300 <= 0.118\ngini = 0.024\nsamples = 4607\nvalue = [4551, 56]\nclass = ham", fillcolor="#e5833b"] ;
18 -> 19 ;
20 [label="gamestar <= 0.102\ngini = 0.023\nsamples = 4605\nvalue = [4551, 54]\nclass = ham", fillcolor="#e5823b"] ;
19 -> 20 ;
21 [label="secs <= 0.141\ngini = 0.022\nsamples = 4603\nvalue = [4551, 52]\nclass = ham", fillcolor="#e5823b"] ;
20 -> 21 ;
22 [label="ltd <= 0.087\ngini = 0.021\nsamples = 4601\nvalue = [4551, 50]\nclass = ham", fillcolor="#e5823b"] ;
21 -> 22 ;
23 [label="bid <= 0.165\ngini = 0.021\nsamples = 4599\nvalue = [4551, 48]\nclass = ham", fillcolor="#e5823b"] ;
22 -> 23 ;
24 [label="age <= 0.348\ngini = 0.02\nsamples = 4597\nvalue = [4551, 46]\nclass = ham", fillcolor="#e5823b"] ;
23 -> 24 ;
25 [label="ringtone <= 0.147\ngini = 0.019\nsamples = 4595\nvalue = [4551, 44]\nclass = ham", fillcolor="#e5823b"] ;
24 -> 25 ;
26 [label="88066 <= 0.287\ngini = 0.018\nsamples = 4593\nvalue = [4551, 42]\nclass = ham", fillcolor="#e5823b"] ;
25 -> 26 ;
27 [label="arsenal <= 0.189\ngini = 0.017\nsamples = 4591\nvalue = [4551, 40]\nclass = ham", fillcolor="#e5823b"] ;
26 -> 27 ;
28 [label="50 <= 0.196\ngini = 0.016\nsamples = 4589\nvalue = [4551, 38]\nclass = ham", fillcolor="#e5823b"] ;
27 -> 28 ;
29 [label="mobile <= 0.064\ngini = 0.015\nsamples = 4584\nvalue = [4549, 35]\nclass = ham", fillcolor="#e5823b"] ;
28 -> 29 ;
30 [label="sept <= 0.106\ngini = 0.013\nsamples = 4566\nvalue = [4536, 30]\nclass = ham", fillcolor="#e5823a"] ;
29 -> 30 ;
31 [label="breath <= 0.177\ngini = 0.012\nsamples = 4563\nvalue = [4535, 28]\nclass = ham", fillcolor="#e5823a"] ;
30 -> 31 ;
32 [label="nos <= 0.121\ngini = 0.012\nsamples = 4562\nvalue = [4535, 27]\nclass = ham", fillcolor="#e5823a"] ;
31 -> 32 ;
33 [label="09066364349 <= 0.16\ngini = 0.011\nsamples = 4561\nvalue = [4535, 26]\nclass = ham", fillcolor="#e5823a"] ;
32 -> 33 ;
34 [label="g2 <= 0.122\ngini = 0.011\nsamples = 4560\nvalue = [4535, 25]\nclass = ham", fillcolor="#e5823a"] ;
33 -> 34 ;
35 [label="sexual <= 0.134\ngini = 0.01\nsamples = 4559\nvalue = [4535, 24]\nclass = ham", fillcolor="#e5823a"] ;
34 -> 35 ;
36 [label="gbp <= 0.15\ngini = 0.01\nsamples = 4558\nvalue = [4535, 23]\nclass = ham", fillcolor="#e5823a"] ;
35 -> 36 ;
37 [label="barbie <= 0.203\ngini = 0.01\nsamples = 4557\nvalue = [4535, 22]\nclass = ham", fillcolor="#e5823a"] ;
36 -> 37 ;
38 [label="thousands <= 0.298\ngini = 0.009\nsamples = 4556\nvalue = [4535, 21]\nclass = ham", fillcolor="#e5823a"] ;
37 -> 38 ;
39 [label="tone <= 0.107\ngini = 0.009\nsamples = 4555\nvalue = [4535, 20]\nclass = ham", fillcolor="#e5823a"] ;
38 -> 39 ;
40 [label="fgkslpopw <= 0.188\ngini = 0.008\nsamples = 4554\nvalue = [4535, 19]\nclass = ham", fillcolor="#e5823a"] ;
39 -> 40 ;
41 [label="dob <= 0.138\ngini = 0.008\nsamples = 4553\nvalue = [4535, 18]\nclass = ham", fillcolor="#e5823a"] ;
40 -> 41 ;
42 [label="bob <= 0.152\ngini = 0.007\nsamples = 4552\nvalue = [4535, 17]\nclass = ham", fillcolor="#e5813a"] ;
41 -> 42 ;
43 [label="guarantee <= 0.136\ngini = 0.007\nsamples = 4551\nvalue = [4535, 16]\nclass = ham", fillcolor="#e5813a"] ;
42 -> 43 ;
44 [label="thnq <= 0.217\ngini = 0.007\nsamples = 4550\nvalue = [4535, 15]\nclass = ham", fillcolor="#e5813a"] ;
43 -> 44 ;
45 [label="ringtoneking <= 0.345\ngini = 0.006\nsamples = 4549\nvalue = [4535, 14]\nclass = ham", fillcolor="#e5813a"] ;
44 -> 45 ;
46 [label="80062 <= 0.124\ngini = 0.006\nsamples = 4548\nvalue = [4535, 13]\nclass = ham", fillcolor="#e5813a"] ;
45 -> 46 ;
47 [label="claire <= 0.434\ngini = 0.005\nsamples = 4547\nvalue = [4535, 12]\nclass = ham", fillcolor="#e5813a"] ;
46 -> 47 ;
48 [label="girls <= 0.409\ngini = 0.005\nsamples = 4546\nvalue = [4535, 11]\nclass = ham", fillcolor="#e58139"] ;
47 -> 48 ;
49 [label="078 <= 0.269\ngini = 0.004\nsamples = 4545\nvalue = [4535, 10]\nclass = ham", fillcolor="#e58139"] ;
48 -> 49 ;
50 [label="maniac <= 0.139\ngini = 0.004\nsamples = 4544\nvalue = [4535, 9]\nclass = ham", fillcolor="#e58139"] ;
49 -> 50 ;
51 [label="2007 <= 0.126\ngini = 0.004\nsamples = 4543\nvalue = [4535, 8]\nclass = ham", fillcolor="#e58139"] ;
50 -> 51 ;
52 [label="wap <= 0.282\ngini = 0.003\nsamples = 4542\nvalue = [4535, 7]\nclass = ham", fillcolor="#e58139"] ;
51 -> 52 ;
53 [label="wining <= 0.228\ngini = 0.003\nsamples = 4541\nvalue = [4535, 6]\nclass = ham", fillcolor="#e58139"] ;
52 -> 53 ;
54 [label="child <= 0.267\ngini = 0.002\nsamples = 4540\nvalue = [4535, 5]\nclass = ham", fillcolor="#e58139"] ;
53 -> 54 ;
55 [label="cops <= 0.194\ngini = 0.002\nsamples = 4539\nvalue = [4535, 4]\nclass = ham", fillcolor="#e58139"] ;
54 -> 55 ;
56 [label="dating <= 0.123\ngini = 0.001\nsamples = 4538\nvalue = [4535, 3]\nclass = ham", fillcolor="#e58139"] ;
55 -> 56 ;
57 [label="146tf150p <= 0.5\ngini = 0.001\nsamples = 4537\nvalue = [4535, 2]\nclass = ham", fillcolor="#e58139"] ;
56 -> 57 ;
58 [label="darling <= 0.302\ngini = 0.0\nsamples = 4536\nvalue = [4535, 1]\nclass = ham", fillcolor="#e58139"] ;
57 -> 58 ;
59 [label="gini = 0.0\nsamples = 4534\nvalue = [4534, 0]\nclass = ham", fillcolor="#e58139"] ;
58 -> 59 ;
60 [label="are <= 0.141\ngini = 0.5\nsamples = 2\nvalue = [1, 1]\nclass = ham", fillcolor="#ffffff"] ;
58 -> 60 ;
61 [label="gini = 0.0\nsamples = 1\nvalue = [1, 0]\nclass = ham", fillcolor="#e58139"] ;
60 -> 61 ;
62 [label="gini = 0.0\nsamples = 1\nvalue = [0, 1]\nclass = spam", fillcolor="#399de5"] ;
60 -> 62 ;
63 [label="gini = 0.0\nsamples = 1\nvalue = [0, 1]\nclass = spam", fillcolor="#399de5"] ;
57 -> 63 ;
64 [label="gini = 0.0\nsamples = 1\nvalue = [0, 1]\nclass = spam", fillcolor="#399de5"] ;
56 -> 64 ;
65 [label="gini = 0.0\nsamples = 1\nvalue = [0, 1]\nclass = spam", fillcolor="#399de5"] ;
55 -> 65 ;
66 [label="gini = 0.0\nsamples = 1\nvalue = [0, 1]\nclass = spam", fillcolor="#399de5"] ;
54 -> 66 ;
67 [label="gini = 0.0\nsamples = 1\nvalue = [0, 1]\nclass = spam", fillcolor="#399de5"] ;
53 -> 67 ;
68 [label="gini = 0.0\nsamples = 1\nvalue = [0, 1]\nclass = spam", fillcolor="#399de5"] ;
52 -> 68 ;
69 [label="gini = 0.0\nsamples = 1\nvalue = [0, 1]\nclass = spam", fillcolor="#399de5"] ;
51 -> 69 ;
70 [label="gini = 0.0\nsamples = 1\nvalue = [0, 1]\nclass = spam", fillcolor="#399de5"] ;
50 -> 70 ;
71 [label="gini = 0.0\nsamples = 1\nvalue = [0, 1]\nclass = spam", fillcolor="#399de5"] ;
49 -> 71 ;
72 [label="gini = 0.0\nsamples = 1\nvalue = [0, 1]\nclass = spam", fillcolor="#399de5"] ;
48 -> 72 ;
73 [label="gini = 0.0\nsamples = 1\nvalue = [0, 1]\nclass = spam", fillcolor="#399de5"] ;
47 -> 73 ;
74 [label="gini = 0.0\nsamples = 1\nvalue = [0, 1]\nclass = spam", fillcolor="#399de5"] ;
46 -> 74 ;
75 [label="gini = 0.0\nsamples = 1\nvalue = [0, 1]\nclass = spam", fillcolor="#399de5"] ;
45 -> 75 ;
76 [label="gini = 0.0\nsamples = 1\nvalue = [0, 1]\nclass = spam", fillcolor="#399de5"] ;
44 -> 76 ;
77 [label="gini = 0.0\nsamples = 1\nvalue = [0, 1]\nclass = spam", fillcolor="#399de5"] ;
43 -> 77 ;
78 [label="gini = 0.0\nsamples = 1\nvalue = [0, 1]\nclass = spam", fillcolor="#399de5"] ;
42 -> 78 ;
79 [label="gini = 0.0\nsamples = 1\nvalue = [0, 1]\nclass = spam", fillcolor="#399de5"] ;
41 -> 79 ;
80 [label="gini = 0.0\nsamples = 1\nvalue = [0, 1]\nclass = spam", fillcolor="#399de5"] ;
40 -> 80 ;
81 [label="gini = 0.0\nsamples = 1\nvalue = [0, 1]\nclass = spam", fillcolor="#399de5"] ;
39 -> 81 ;
82 [label="gini = 0.0\nsamples = 1\nvalue = [0, 1]\nclass = spam", fillcolor="#399de5"] ;
38 -> 82 ;
83 [label="gini = 0.0\nsamples = 1\nvalue = [0, 1]\nclass = spam", fillcolor="#399de5"] ;
37 -> 83 ;
84 [label="gini = 0.0\nsamples = 1\nvalue = [0, 1]\nclass = spam", fillcolor="#399de5"] ;
36 -> 84 ;
85 [label="gini = 0.0\nsamples = 1\nvalue = [0, 1]\nclass = spam", fillcolor="#399de5"] ;
35 -> 85 ;
86 [label="gini = 0.0\nsamples = 1\nvalue = [0, 1]\nclass = spam", fillcolor="#399de5"] ;
34 -> 86 ;
87 [label="gini = 0.0\nsamples = 1\nvalue = [0, 1]\nclass = spam", fillcolor="#399de5"] ;
33 -> 87 ;
88 [label="gini = 0.0\nsamples = 1\nvalue = [0, 1]\nclass = spam", fillcolor="#399de5"] ;
32 -> 88 ;
89 [label="gini = 0.0\nsamples = 1\nvalue = [0, 1]\nclass = spam", fillcolor="#399de5"] ;
31 -> 89 ;
90 [label="re <= 0.075\ngini = 0.444\nsamples = 3\nvalue = [1, 2]\nclass = spam", fillcolor="#9ccef2"] ;
30 -> 90 ;
91 [label="gini = 0.0\nsamples = 2\nvalue = [0, 2]\nclass = spam", fillcolor="#399de5"] ;
90 -> 91 ;
92 [label="gini = 0.0\nsamples = 1\nvalue = [1, 0]\nclass = ham", fillcolor="#e58139"] ;
90 -> 92 ;
93 [label="by <= 0.062\ngini = 0.401\nsamples = 18\nvalue = [13, 5]\nclass = ham", fillcolor="#efb185"] ;
29 -> 93 ;
94 [label="your <= 0.09\ngini = 0.231\nsamples = 15\nvalue = [13, 2]\nclass = ham", fillcolor="#e99457"] ;
93 -> 94 ;
95 [label="gini = 0.0\nsamples = 13\nvalue = [13, 0]\nclass = ham", fillcolor="#e58139"] ;
94 -> 95 ;
96 [label="gini = 0.0\nsamples = 2\nvalue = [0, 2]\nclass = spam", fillcolor="#399de5"] ;
94 -> 96 ;
97 [label="gini = 0.0\nsamples = 3\nvalue = [0, 3]\nclass = spam", fillcolor="#399de5"] ;
93 -> 97 ;
98 [label="your <= 0.045\ngini = 0.48\nsamples = 5\nvalue = [2, 3]\nclass = spam", fillcolor="#bddef6"] ;
28 -> 98 ;
99 [label="contact <= 0.1\ngini = 0.444\nsamples = 3\nvalue = [2, 1]\nclass = ham", fillcolor="#f2c09c"] ;
98 -> 99 ;
100 [label="gini = 0.0\nsamples = 2\nvalue = [2, 0]\nclass = ham", fillcolor="#e58139"] ;
99 -> 100 ;
101 [label="gini = 0.0\nsamples = 1\nvalue = [0, 1]\nclass = spam", fillcolor="#399de5"] ;
99 -> 101 ;
102 [label="gini = 0.0\nsamples = 2\nvalue = [0, 2]\nclass = spam", fillcolor="#399de5"] ;
98 -> 102 ;
103 [label="gini = 0.0\nsamples = 2\nvalue = [0, 2]\nclass = spam", fillcolor="#399de5"] ;
27 -> 103 ;
104 [label="gini = 0.0\nsamples = 2\nvalue = [0, 2]\nclass = spam", fillcolor="#399de5"] ;
26 -> 104 ;
105 [label="gini = 0.0\nsamples = 2\nvalue = [0, 2]\nclass = spam", fillcolor="#399de5"] ;
25 -> 105 ;
106 [label="gini = 0.0\nsamples = 2\nvalue = [0, 2]\nclass = spam", fillcolor="#399de5"] ;
24 -> 106 ;
107 [label="gini = 0.0\nsamples = 2\nvalue = [0, 2]\nclass = spam", fillcolor="#399de5"] ;
23 -> 107 ;
108 [label="gini = 0.0\nsamples = 2\nvalue = [0, 2]\nclass = spam", fillcolor="#399de5"] ;
22 -> 108 ;
109 [label="gini = 0.0\nsamples = 2\nvalue = [0, 2]\nclass = spam", fillcolor="#399de5"] ;
21 -> 109 ;
110 [label="gini = 0.0\nsamples = 2\nvalue = [0, 2]\nclass = spam", fillcolor="#399de5"] ;
20 -> 110 ;
111 [label="gini = 0.0\nsamples = 2\nvalue = [0, 2]\nclass = spam", fillcolor="#399de5"] ;
19 -> 111 ;
112 [label="gini = 0.0\nsamples = 2\nvalue = [0, 2]\nclass = spam", fillcolor="#399de5"] ;
18 -> 112 ;
113 [label="gini = 0.0\nsamples = 3\nvalue = [0, 3]\nclass = spam", fillcolor="#399de5"] ;
17 -> 113 ;
114 [label="gini = 0.0\nsamples = 3\nvalue = [0, 3]\nclass = spam", fillcolor="#399de5"] ;
16 -> 114 ;
115 [label="gini = 0.0\nsamples = 4\nvalue = [0, 4]\nclass = spam", fillcolor="#399de5"] ;
15 -> 115 ;
116 [label="gini = 0.0\nsamples = 4\nvalue = [0, 4]\nclass = spam", fillcolor="#399de5"] ;
14 -> 116 ;
117 [label="gini = 0.0\nsamples = 4\nvalue = [0, 4]\nclass = spam", fillcolor="#399de5"] ;
13 -> 117 ;
118 [label="us <= 0.11\ngini = 0.463\nsamples = 11\nvalue = [4, 7]\nclass = spam", fillcolor="#aad5f4"] ;
12 -> 118 ;
119 [label="shanil <= 0.155\ngini = 0.346\nsamples = 9\nvalue = [2, 7]\nclass = spam", fillcolor="#72b9ec"] ;
118 -> 119 ;
120 [label="you <= 0.193\ngini = 0.219\nsamples = 8\nvalue = [1, 7]\nclass = spam", fillcolor="#55abe9"] ;
119 -> 120 ;
121 [label="gini = 0.0\nsamples = 7\nvalue = [0, 7]\nclass = spam", fillcolor="#399de5"] ;
120 -> 121 ;
122 [label="gini = 0.0\nsamples = 1\nvalue = [1, 0]\nclass = ham", fillcolor="#e58139"] ;
120 -> 122 ;
123 [label="gini = 0.0\nsamples = 1\nvalue = [1, 0]\nclass = ham", fillcolor="#e58139"] ;
119 -> 123 ;
124 [label="gini = 0.0\nsamples = 2\nvalue = [2, 0]\nclass = ham", fillcolor="#e58139"] ;
118 -> 124 ;
125 [label="gini = 0.0\nsamples = 5\nvalue = [0, 5]\nclass = spam", fillcolor="#399de5"] ;
11 -> 125 ;
126 [label="gini = 0.0\nsamples = 5\nvalue = [0, 5]\nclass = spam", fillcolor="#399de5"] ;
10 -> 126 ;
127 [label="gini = 0.0\nsamples = 6\nvalue = [0, 6]\nclass = spam", fillcolor="#399de5"] ;
9 -> 127 ;
128 [label="gini = 0.0\nsamples = 8\nvalue = [0, 8]\nclass = spam", fillcolor="#399de5"] ;
8 -> 128 ;
129 [label="win <= 0.214\ngini = 0.455\nsamples = 20\nvalue = [7, 13]\nclass = spam", fillcolor="#a4d2f3"] ;
7 -> 129 ;
130 [label="gini = 0.0\nsamples = 12\nvalue = [0, 12]\nclass = spam", fillcolor="#399de5"] ;
129 -> 130 ;
131 [label="worth <= 0.2\ngini = 0.219\nsamples = 8\nvalue = [7, 1]\nclass = ham", fillcolor="#e99355"] ;
129 -> 131 ;
132 [label="gini = 0.0\nsamples = 7\nvalue = [7, 0]\nclass = ham", fillcolor="#e58139"] ;
131 -> 132 ;
133 [label="gini = 0.0\nsamples = 1\nvalue = [0, 1]\nclass = spam", fillcolor="#399de5"] ;
131 -> 133 ;
134 [label="yellow <= 0.18\ngini = 0.124\nsamples = 15\nvalue = [1, 14]\nclass = spam", fillcolor="#47a4e7"] ;
6 -> 134 ;
135 [label="gini = 0.0\nsamples = 14\nvalue = [0, 14]\nclass = spam", fillcolor="#399de5"] ;
134 -> 135 ;
136 [label="gini = 0.0\nsamples = 1\nvalue = [1, 0]\nclass = ham", fillcolor="#e58139"] ;
134 -> 136 ;
137 [label="gini = 0.0\nsamples = 19\nvalue = [0, 19]\nclass = spam", fillcolor="#399de5"] ;
5 -> 137 ;
138 [label="gini = 0.0\nsamples = 19\nvalue = [0, 19]\nclass = spam", fillcolor="#399de5"] ;
4 -> 138 ;
139 [label="get <= 0.043\ngini = 0.491\nsamples = 95\nvalue = [41, 54]\nclass = spam", fillcolor="#cfe7f9"] ;
3 -> 139 ;
140 [label="your <= 0.05\ngini = 0.49\nsamples = 70\nvalue = [40, 30]\nclass = ham", fillcolor="#f8e0ce"] ;
139 -> 140 ;
141 [label="free <= 0.16\ngini = 0.432\nsamples = 57\nvalue = [39, 18]\nclass = ham", fillcolor="#f1bb94"] ;
140 -> 141 ;
142 [label="me <= 0.092\ngini = 0.476\nsamples = 23\nvalue = [9, 14]\nclass = spam", fillcolor="#b8dcf6"] ;
141 -> 142 ;
143 [label="on <= 0.115\ngini = 0.388\nsamples = 19\nvalue = [5, 14]\nclass = spam", fillcolor="#80c0ee"] ;
142 -> 143 ;
144 [label="was <= 0.067\ngini = 0.219\nsamples = 16\nvalue = [2, 14]\nclass = spam", fillcolor="#55abe9"] ;
143 -> 144 ;
145 [label="gini = 0.0\nsamples = 14\nvalue = [0, 14]\nclass = spam", fillcolor="#399de5"] ;
144 -> 145 ;
146 [label="gini = 0.0\nsamples = 2\nvalue = [2, 0]\nclass = ham", fillcolor="#e58139"] ;
144 -> 146 ;
147 [label="gini = 0.0\nsamples = 3\nvalue = [3, 0]\nclass = ham", fillcolor="#e58139"] ;
143 -> 147 ;
148 [label="gini = 0.0\nsamples = 4\nvalue = [4, 0]\nclass = ham", fillcolor="#e58139"] ;
142 -> 148 ;
149 [label="ringtone <= 0.1\ngini = 0.208\nsamples = 34\nvalue = [30, 4]\nclass = ham", fillcolor="#e89253"] ;
141 -> 149 ;
150 [label="is <= 0.048\ngini = 0.117\nsamples = 32\nvalue = [30, 2]\nclass = ham", fillcolor="#e78946"] ;
149 -> 150 ;
151 [label="gini = 0.0\nsamples = 30\nvalue = [30, 0]\nclass = ham", fillcolor="#e58139"] ;
150 -> 151 ;
152 [label="gini = 0.0\nsamples = 2\nvalue = [0, 2]\nclass = spam", fillcolor="#399de5"] ;
150 -> 152 ;
153 [label="gini = 0.0\nsamples = 2\nvalue = [0, 2]\nclass = spam", fillcolor="#399de5"] ;
149 -> 153 ;
154 [label="other <= 0.095\ngini = 0.142\nsamples = 13\nvalue = [1, 12]\nclass = spam", fillcolor="#49a5e7"] ;
140 -> 154 ;
155 [label="gini = 0.0\nsamples = 12\nvalue = [0, 12]\nclass = spam", fillcolor="#399de5"] ;
154 -> 155 ;
156 [label="gini = 0.0\nsamples = 1\nvalue = [1, 0]\nclass = ham", fillcolor="#e58139"] ;
154 -> 156 ;
157 [label="other <= 0.079\ngini = 0.077\nsamples = 25\nvalue = [1, 24]\nclass = spam", fillcolor="#41a1e6"] ;
139 -> 157 ;
158 [label="gini = 0.0\nsamples = 24\nvalue = [0, 24]\nclass = spam", fillcolor="#399de5"] ;
157 -> 158 ;
159 [label="gini = 0.0\nsamples = 1\nvalue = [1, 0]\nclass = ham", fillcolor="#e58139"] ;
157 -> 159 ;
160 [label="gini = 0.0\nsamples = 51\nvalue = [0, 51]\nclass = spam", fillcolor="#399de5"] ;
2 -> 160 ;
161 [label="to <= 0.026\ngini = 0.144\nsamples = 154\nvalue = [12, 142]\nclass = spam", fillcolor="#4aa5e7"] ;
1 -> 161 ;
162 [label="stop <= 0.064\ngini = 0.498\nsamples = 17\nvalue = [9, 8]\nclass = ham", fillcolor="#fcf1e9"] ;
161 -> 162 ;
163 [label="txt <= 0.133\ngini = 0.298\nsamples = 11\nvalue = [9, 2]\nclass = ham", fillcolor="#eb9d65"] ;
162 -> 163 ;
164 [label="gini = 0.0\nsamples = 2\nvalue = [0, 2]\nclass = spam", fillcolor="#399de5"] ;
163 -> 164 ;
165 [label="gini = 0.0\nsamples = 9\nvalue = [9, 0]\nclass = ham", fillcolor="#e58139"] ;
163 -> 165 ;
166 [label="gini = 0.0\nsamples = 6\nvalue = [0, 6]\nclass = spam", fillcolor="#399de5"] ;
162 -> 166 ;
167 [label="im <= 0.177\ngini = 0.043\nsamples = 137\nvalue = [3, 134]\nclass = spam", fillcolor="#3d9fe6"] ;
161 -> 167 ;
168 [label="can <= 0.212\ngini = 0.015\nsamples = 135\nvalue = [1, 134]\nclass = spam", fillcolor="#3a9ee5"] ;
167 -> 168 ;
169 [label="gini = 0.0\nsamples = 134\nvalue = [0, 134]\nclass = spam", fillcolor="#399de5"] ;
168 -> 169 ;
170 [label="gini = 0.0\nsamples = 1\nvalue = [1, 0]\nclass = ham", fillcolor="#e58139"] ;
168 -> 170 ;
171 [label="gini = 0.0\nsamples = 2\nvalue = [2, 0]\nclass = ham", fillcolor="#e58139"] ;
167 -> 171 ;
172 [label="call <= 0.137\ngini = 0.475\nsamples = 537\nvalue = [209, 328]\nclass = spam", fillcolor="#b7dbf6"] ;
0 -> 172 [labeldistance=2.5, labelangle=-45, headlabel="False"] ;
173 [label="me <= 0.086\ngini = 0.19\nsamples = 310\nvalue = [33, 277]\nclass = spam", fillcolor="#51a9e8"] ;
172 -> 173 ;
174 [label="my <= 0.095\ngini = 0.092\nsamples = 289\nvalue = [14, 275]\nclass = spam", fillcolor="#43a2e6"] ;
173 -> 174 ;
175 [label="that <= 0.129\ngini = 0.068\nsamples = 285\nvalue = [10, 275]\nclass = spam", fillcolor="#40a1e6"] ;
174 -> 175 ;
176 [label="oh <= 0.089\ngini = 0.042\nsamples = 280\nvalue = [6, 274]\nclass = spam", fillcolor="#3d9fe6"] ;
175 -> 176 ;
177 [label="need <= 0.131\ngini = 0.028\nsamples = 278\nvalue = [4, 274]\nclass = spam", fillcolor="#3c9ee5"] ;
176 -> 177 ;
178 [label="ham <= 0.155\ngini = 0.014\nsamples = 276\nvalue = [2, 274]\nclass = spam", fillcolor="#3a9ee5"] ;
177 -> 178 ;
179 [label="happy <= 0.083\ngini = 0.007\nsamples = 275\nvalue = [1, 274]\nclass = spam", fillcolor="#3a9de5"] ;
178 -> 179 ;
180 [label="gini = 0.0\nsamples = 274\nvalue = [0, 274]\nclass = spam", fillcolor="#399de5"] ;
179 -> 180 ;
181 [label="gini = 0.0\nsamples = 1\nvalue = [1, 0]\nclass = ham", fillcolor="#e58139"] ;
179 -> 181 ;
182 [label="gini = 0.0\nsamples = 1\nvalue = [1, 0]\nclass = ham", fillcolor="#e58139"] ;
178 -> 182 ;
183 [label="gini = 0.0\nsamples = 2\nvalue = [2, 0]\nclass = ham", fillcolor="#e58139"] ;
177 -> 183 ;
184 [label="gini = 0.0\nsamples = 2\nvalue = [2, 0]\nclass = ham", fillcolor="#e58139"] ;
176 -> 184 ;
185 [label="pobox <= 0.138\ngini = 0.32\nsamples = 5\nvalue = [4, 1]\nclass = ham", fillcolor="#eca06a"] ;
175 -> 185 ;
186 [label="gini = 0.0\nsamples = 4\nvalue = [4, 0]\nclass = ham", fillcolor="#e58139"] ;
185 -> 186 ;
187 [label="gini = 0.0\nsamples = 1\nvalue = [0, 1]\nclass = spam", fillcolor="#399de5"] ;
185 -> 187 ;
188 [label="gini = 0.0\nsamples = 4\nvalue = [4, 0]\nclass = ham", fillcolor="#e58139"] ;
174 -> 188 ;
189 [label="luv <= 0.101\ngini = 0.172\nsamples = 21\nvalue = [19, 2]\nclass = ham", fillcolor="#e88e4e"] ;
173 -> 189 ;
190 [label="gini = 0.0\nsamples = 19\nvalue = [19, 0]\nclass = ham", fillcolor="#e58139"] ;
189 -> 190 ;
191 [label="gini = 0.0\nsamples = 2\nvalue = [0, 2]\nclass = spam", fillcolor="#399de5"] ;
189 -> 191 ;
192 [label="call <= 0.25\ngini = 0.348\nsamples = 227\nvalue = [176, 51]\nclass = ham", fillcolor="#eda672"] ;
172 -> 192 ;
193 [label="me <= 0.122\ngini = 0.487\nsamples = 119\nvalue = [69, 50]\nclass = ham", fillcolor="#f8dcc8"] ;
192 -> 193 ;
194 [label="will <= 0.139\ngini = 0.487\nsamples = 86\nvalue = [36, 50]\nclass = spam", fillcolor="#c8e4f8"] ;
193 -> 194 ;
195 [label="have <= 0.053\ngini = 0.455\nsamples = 77\nvalue = [27, 50]\nclass = spam", fillcolor="#a4d2f3"] ;
194 -> 195 ;
196 [label="min <= 0.085\ngini = 0.495\nsamples = 58\nvalue = [26, 32]\nclass = spam", fillcolor="#daedfa"] ;
195 -> 196 ;
197 [label="message <= 0.114\ngini = 0.488\nsamples = 45\nvalue = [26, 19]\nclass = ham", fillcolor="#f8ddca"] ;
196 -> 197 ;
198 [label="nokia <= 0.081\ngini = 0.444\nsamples = 39\nvalue = [26, 13]\nclass = ham", fillcolor="#f2c09c"] ;
197 -> 198 ;
199 [label="only <= 0.101\ngini = 0.36\nsamples = 34\nvalue = [26, 8]\nclass = ham", fillcolor="#eda876"] ;
198 -> 199 ;
200 [label="little <= 0.088\ngini = 0.271\nsamples = 31\nvalue = [26, 5]\nclass = ham", fillcolor="#ea995f"] ;
199 -> 200 ;
201 [label="88800 <= 0.22\ngini = 0.185\nsamples = 29\nvalue = [26, 3]\nclass = ham", fillcolor="#e89050"] ;
200 -> 201 ;
202 [label="freephone <= 0.229\ngini = 0.133\nsamples = 28\nvalue = [26, 2]\nclass = ham", fillcolor="#e78b48"] ;
201 -> 202 ;
203 [label="or <= 0.066\ngini = 0.071\nsamples = 27\nvalue = [26, 1]\nclass = ham", fillcolor="#e68641"] ;
202 -> 203 ;
204 [label="gini = 0.0\nsamples = 26\nvalue = [26, 0]\nclass = ham", fillcolor="#e58139"] ;
203 -> 204 ;
205 [label="gini = 0.0\nsamples = 1\nvalue = [0, 1]\nclass = spam", fillcolor="#399de5"] ;
203 -> 205 ;
206 [label="gini = 0.0\nsamples = 1\nvalue = [0, 1]\nclass = spam", fillcolor="#399de5"] ;
202 -> 206 ;
207 [label="gini = 0.0\nsamples = 1\nvalue = [0, 1]\nclass = spam", fillcolor="#399de5"] ;
201 -> 207 ;
208 [label="gini = 0.0\nsamples = 2\nvalue = [0, 2]\nclass = spam", fillcolor="#399de5"] ;
200 -> 208 ;
209 [label="gini = 0.0\nsamples = 3\nvalue = [0, 3]\nclass = spam", fillcolor="#399de5"] ;
199 -> 209 ;
210 [label="gini = 0.0\nsamples = 5\nvalue = [0, 5]\nclass = spam", fillcolor="#399de5"] ;
198 -> 210 ;
211 [label="gini = 0.0\nsamples = 6\nvalue = [0, 6]\nclass = spam", fillcolor="#399de5"] ;
197 -> 211 ;
212 [label="gini = 0.0\nsamples = 13\nvalue = [0, 13]\nclass = spam", fillcolor="#399de5"] ;
196 -> 212 ;
213 [label="missed <= 0.374\ngini = 0.1\nsamples = 19\nvalue = [1, 18]\nclass = spam", fillcolor="#44a2e6"] ;
195 -> 213 ;
214 [label="gini = 0.0\nsamples = 18\nvalue = [0, 18]\nclass = spam", fillcolor="#399de5"] ;
213 -> 214 ;
215 [label="gini = 0.0\nsamples = 1\nvalue = [1, 0]\nclass = ham", fillcolor="#e58139"] ;
213 -> 215 ;
216 [label="gini = 0.0\nsamples = 9\nvalue = [9, 0]\nclass = ham", fillcolor="#e58139"] ;
194 -> 216 ;
217 [label="gini = 0.0\nsamples = 33\nvalue = [33, 0]\nclass = ham", fillcolor="#e58139"] ;
193 -> 217 ;
218 [label="mobile <= 0.093\ngini = 0.018\nsamples = 108\nvalue = [107, 1]\nclass = ham", fillcolor="#e5823b"] ;
192 -> 218 ;
219 [label="gini = 0.0\nsamples = 107\nvalue = [107, 0]\nclass = ham", fillcolor="#e58139"] ;
218 -> 219 ;
220 [label="gini = 0.0\nsamples = 1\nvalue = [0, 1]\nclass = spam", fillcolor="#399de5"] ;
218 -> 220 ;
}